2: 
395.57696239 -413.86341613  389.07789096   43.8432206   -32.80432737
 -221.22503261  102.59978563  226.88549408    4.59620026  510.67174969
 -611.0234218   326.01656881 -149.49044732  434.60963609   11.57729755
 -302.30701716   -6.99286719  154.6843489  -290.32483388  316.31160767
3:
544.02478112 -265.96333849  859.99977215  209.8189859   950.75568616
    8.05795305   92.85952532 -858.35200216  -51.3571897  -743.1046719
  388.26378693 -451.97915495  990.66625671 -354.38050989  338.8262972
  440.5778071   874.66694161 -619.75129591   15.43159446  211.9579147
4:
149.46839138  -18.31265722 -247.65328005 -150.02350085  134.83837034
 -185.24782579  242.52716583  192.32462763 -238.4825741  -133.41848808
 -201.55338358   24.67365481  220.56163459 -222.37565951 -162.18665064
 -207.88804813  -46.07570205   59.38666736   79.75522282 -135.22756234
5:
10.8068286     3.17498066    3.27341897 -270.35355243  -22.99725974
   53.97057957  -10.52630224  -87.45707886 -264.20801108  -30.27811355
 -268.82487543   10.00422175  142.82100902  282.92712289  -10.17945976
  -21.82168362  -29.38218226 -159.52432612  -20.54560178    2.67538008
6:
757.90813978  362.65048196 -142.17698304 -500.1601197   731.03130583
 -394.61904553  271.3686519  -631.59695017 -341.20158633   -5.54944242
  430.45812806   -9.82862132  485.71319768  795.14610531  598.91347115
   25.54573829 -491.65152868    1.56052596    3.36833032 -589.25391017
7:
1.07022921e+03   5.10186236e+02  -2.38642504e+02  -7.11733373e+02
   1.05599249e+03  -5.57408172e+02   4.12490802e+02  -9.00737077e+02
  -5.38223121e+02  -6.12317488e-01   6.38455748e+02  -5.32423940e+00
   7.00272860e+02   1.20675666e+03   8.92115680e+02   3.68853276e+01
  -6.85306555e+02   1.27138699e+01  -1.90918283e+01  -8.89411402e+02

 